qF1_1,qF2_1,qF3_1,qF1_2,qF2_2,qF3_2,qF1_3,qF2_3,qF3_3,qF1_4,qF2_4,qF3_4,qF1_5,qF2_5,qF3_5,qF1_6,qF2_6,qF3_6,qF1_7,qF2_7,qF3_7,qH1_1,qH2_1,qH3_1,qH1_2,qH2_2,qH3_2,qH1_3,qH2_3,qH3_3,qH1_4,qH2_4,qH3_4,qH1_5,qH2_5,qH3_5,qH1_6,qH2_6,qH3_6,qH1_7,qH2_7,qH3_7
0.0,68.8837700624938,48.7194668238822,0.0,18.252589388326587,2.7278822511656955,0.0,-3.5104781213702,2.1002931421825553,0.0,-44.031092292597535,-2.0479090768257096,0.0,-7.968528303803246,-3.8211152975130536,0.0,0.014383451577326619,0.008731362009659543,-10.0,2.753966177022269,-11.033967071690965,0.0,33.30211158697867,0.0,0.0,-10.725900999661027,0.0,0.0,-0.7349963342964113,0.0,0.0,10.811293656809715,0.0,0.0,-8.835189171396351,0.0,0.0,-0.2838006635524518,0.0,10.0,20.21318317237754,4.916540323916704
36.285423663826194,-50.03634158211073,0.0,-0.1433288289965012,-0.4932635718434861,0.0,-56.526610397782036,13.612748061544393,0.0,41.3850085811925,-5.808857639255362,0.0,-0.6178711313970153,20.688807518370172,20.0,0.0012177693061885021,1.0705950205373325,0.0,-0.8338564168481587,-51.07688282460538,-10.0,0.0,-64.87143376842035,0.0,0.0,-4.005012157468999,0.0,0.0,16.313531347171086,0.0,0.0,9.922514871911103,0.0,0.0,7.138399378354,0.0,0.0,0.3996544249583578,0.0,10.0,-8.37335073571836,9.999999999999998
-4.043197715062389,-117.54704197054122,0.0,0.9424142143648581,23.48960100627526,0.0,-4.75568257790706,95.53158683933285,0.0,5.2956754997962445,-22.722040200523637,0.0,20.730834397089176,-15.283397329177715,0.0,-0.027739382489404336,0.012713930242688064,0.0,-9.51254987129641,-6.133818453572662,10.0,0.0,-34.92038676986882,0.0,0.0,-6.838995397514957,0.0,0.0,1.1992638616635898,0.0,0.0,15.621284853160391,0.0,0.0,-0.9681917534783006,0.0,0.0,0.7138016938830278,0.0,10.0,-20.516779751020973,10.0
62.31470581456936,-8.739188923484182,1.7153008335467081,-19.00046227886406,33.01076858143134,10.536689372136685,-16.278652261667645,33.149555485226486,18.66328928627423,25.816603735120957,-41.17154083627369,-12.250482600596962,-17.324069835338435,2.98632996418206,-6.070096278528511,0.08242338830565962,0.4333097422011649,0.026984399935767556,3.6160297995731976,-31.414057037662122,-9.93781007284183,0.0,-2.6969392186356074,0.0,0.0,1.1299343845967955,0.0,0.0,-5.626602658085086,0.0,0.0,-0.7617204039470458,0.0,0.0,2.093850063892296,0.0,0.0,-0.04255238024717834,0.0,10.0,11.380302297768294,9.104193157392526
9.603538538270717,0.0,-40.488870616294285,8.164235466627671,0.0,-5.197941044784358,55.31453177888104,0.0,-7.226224034974344,-23.26341083900401,0.0,5.443328556162116,-30.065140964024774,0.0,7.834727127329703,0.30796790725514156,0.0,-0.005755362624081502,-2.6760908243866606,10.000000000000002,10.272872763961368,4.483643608582087,44.44284556036396,0.0,2.1000781086610347,-2.1837443243596923,0.0,14.625241416573596,-34.310455599051615,0.0,7.83524304875582,11.783354238291775,0.0,-16.33731845181066,-1.5071846612695416,0.0,-0.0023608763163264147,-0.14447679646616599,0.0,6.435202501055092,14.39945375147574,0.0
23.33448048856722,147.28338423727195,44.803226268627746,-8.284992768242398,-35.52920394041972,-1.1913395370484525,-23.552533788997742,-2.368147799108009,-25.118734545736906,22.807236438991257,-10.305018625981267,19.09543650283795,-2.7684543803408683,-19.30101581151929,4.783579799461772,0.6043354216091076,-0.28114778898444504,-0.0037309712936997876,-8.472801071751842,22.93955687630195,-8.229862932199444,0.0,82.72261357992366,0.0,0.0,-13.056838574925054,0.0,0.0,-16.10436371234966,0.0,0.0,-12.81659479414703,0.0,0.0,-7.848698953525769,0.0,0.0,-0.13709811436238922,0.0,9.999999999999998,16.555641354980736,0.0
-112.18031148015275,129.636423367996,0.0,26.088921120372813,-15.54787458299455,0.0,70.84994795394913,-26.812374150337,0.0,-35.37564428039901,26.701520374460692,0.0,9.424035145738294,-46.23443056133609,0.0,0.651566908229174,-0.010560606741994844,0.0,-16.527396254529783,12.6497786221179,-10.0,0.0,64.40995355749902,0.0,0.0,-11.262998708027371,0.0,0.0,-24.977340076138717,0.0,0.0,29.448375387049428,0.0,0.0,-19.601887831243282,0.0,0.0,-0.4488178271433271,0.0,10.0,25.424645221785163,0.0
-70.83456953173848,55.68354673942277,12.590388606542499,2.465319125920958,-22.815190600894898,3.568626919052766,52.84323681395437,-19.370281301420697,-22.906905454525038,-27.072149375098572,-12.608635587414971,-11.296902773172567,-5.111343849879756,17.674655587975792,1.2041290996013743,0.09288920129660756,-0.08655766343793046,-0.0009826862216561977,7.697988855117841,10.211933926672204,9.804425132307285,0.0,40.37995048232232,0.0,0.0,-8.345991844819702,0.0,0.0,33.54406520063107,0.0,0.0,-47.65782930169497,0.0,0.0,-7.886411458405085,0.0,0.0,-0.1772743577951431,0.0,10.0,17.75313046038854,0.0
-32.22963744421796,29.38760720695815,-7.01958951179332,28.75653600217276,-41.84870621403369,-1.4136781143398558,-22.812612919088558,30.007814280165242,37.52845195821384,-23.01331453687519,-31.506767957786877,-7.620906874716353,25.41966111946684,19.55147218769928,-16.567790751580812,0.11994173807046858,0.0,-0.0011779522645012088,-10.189016709553322,8.83914743523491,1.9975451303015563,0.0,39.54304364395217,0.0,0.0,-34.69481063380106,0.0,0.0,-44.876958459203145,0.0,0.0,49.75452976074903,0.0,0.0,3.5312636870368053,0.0,0.0,0.0,0.0,10.0,10.863644886532693,0.0
-13.513801116843682,446.88060947662564,11.678760676402876,15.475587126403628,-98.04974764495125,-6.591195105041588,25.423649222269496,-230.2075221435442,-8.085913283672653,-42.652609671515826,110.95055620133176,5.336889019179897,-5.7314542772576464,-35.54206186175398,-8.682945234055754,0.0963228330608803,0.28125022859395965,0.016711344549323538,6.596524722764724,-0.8027504756530106,0.8336226088407862,0.0,158.4316317091569,0.0,0.0,-54.02697347401429,0.0,0.0,-104.632001054957,0.0,0.0,68.63357509263892,0.0,0.0,-7.238574879490081,0.0,0.0,0.014259806027506329,0.0,10.000000000000002,11.798949470153788,0.0
-3.782375827389653,-2006.0678773637196,25.402593212292953,6.139783812640698,985.9084271128067,-16.122521586116104,31.486199214816626,-83.01653815185799,-24.620236001756815,8.215099042032938,-444.1846801456946,25.881899410240578,-26.581984273149256,310.90221837447694,-4.664870280872813,-0.2369645627134338,-26.02364665989127,0.010745395816271104,1.0309405330083492,865.4966787496492,3.4585949664224334,0.0,-996.2909058828959,0.0,0.0,484.6348558029387,0.0,0.0,58.51481350730827,0.0,0.0,-261.5385747169036,0.0,0.0,122.70647045788752,0.0,0.0,-11.919592124762966,0.0,10.0,394.5723142979241,0.0
1.4787503428456816,-101.89161602458464,9.468861949444623,4.500186384942567,-11.701033814458382,-10.966215510577142,51.079390509819305,108.96583331787366,-29.469561775377585,-19.160261644195817,17.64330992152048,19.938063947673633,-20.0552169421255,-28.017650810267,0.7970509361075591,-0.10468011539571553,0.4694206912776302,0.0067414262333296265,-3.374011489925386,-17.716230835700397,7.082350008106223,5.994393408387337,-50.94580801229232,0.0,0.19857116672696398,-5.850516907229194,0.0,0.1614112224973571,54.48291665893682,0.0,0.284957228179525,8.821654960760249,0.0,-2.78069538832082,-14.008825405133496,0.0,-0.28784632004066624,0.23471034563881502,0.0,10.245012396651479,-3.858115417850197,0.0
98.90156593196261,45.30689850958571,0.0,-14.409124476368486,-2.496361021097067,0.0,-6.379328868093688,-51.57203982462787,0.0,-3.344430223682014,1.493213015148558,0.0,-27.096669409218137,0.46055252931719204,0.0,-0.3215967388671356,0.1477827030030361,0.0,7.563722403048706,4.623645524062217,10.0,0.0,12.625519132279699,0.0,0.0,3.973623990976459,0.0,0.0,-10.025171091636293,0.0,0.0,-10.166365985995812,0.0,0.0,1.012253473468264,0.0,0.0,-0.019986679519452957,0.0,10.0,10.8214485259312,10.000000000000012
-55.93584597439017,-68.80468555531792,0.0,10.971370890372901,-29.646381772800694,0.0,46.11711095159643,5.911177326750236,0.0,-14.685904235942859,51.73328216417019,0.0,6.297029980222655,9.771020230299948,0.0,-0.09800156588695558,-0.9032221313525465,0.0,-8.843556876178388,42.018605352921156,10.0,0.0,-23.322497625764488,0.0,0.0,19.30658084586817,0.0,0.0,-5.889736497788819,0.0,0.0,1.4428053240292433,0.0,0.0,7.017000142783102,0.0,0.0,-0.5391790322042761,0.0,10.0,23.058711035834122,5.979266518690769
-17.362097599667514,-328.9582750148385,-7.363801694605144,1.3016842727436908,-70.31002428882952,-21.52963213970521,12.24651789917134,488.63748948198497,3.949062880494598,14.283358770947768,130.12810930039691,2.7558197907138053,-22.412624322719967,-1.567100891292739,0.23406493573448622,-0.0368895462227368,-7.992865750773385,0.002441800431706008,6.798585939348846,277.2715444323345,9.301794853733286,0.0,-186.8346516438141,0.0,0.0,-49.73485113105577,0.0,0.0,329.8582591490245,0.0,0.0,31.22145337631142,0.0,0.0,0.023748579769304,0.0,0.0,-5.181002099778722,0.0,10.0,187.25543844446614,0.0
32.65552074310461,-31.192736783288463,0.0,5.877619217753722,73.484333258331,0.0,10.938915686999202,-60.87901969387246,0.0,-32.33952101770774,-64.0164536125931,0.0,-19.000793471741222,32.65547989414065,0.0,0.010467199224025548,0.28339840147727,0.0,11.04324867676292,-20.7395992417858,10.000000000000002,0.0,-151.00692351217504,0.0,0.0,82.73057578713853,0.0,0.0,163.1289544782353,0.0,0.0,-108.35403119429544,0.0,0.0,-16.847930491998792,0.0,0.0,-0.9051537553353172,0.0,10.0,35.974287331239715,0.0
-171.7680742306809,0.0,0.0,7.542025875790549,0.0,0.0,87.03081257961259,0.0,0.0,-31.43749881224404,0.0,0.0,10.446699180600753,0.0,0.0,0.3633454289832122,0.0,0.0,-3.728757198517421,10.0,10.0,-46.742958516249416,11.108778522139145,0.0,3.1053960012434856,14.87139636546817,0.0,13.59814616211242,22.33751195013132,0.0,-8.60966185490987,-4.734862110244349,0.0,5.369919961726193,-23.123114536446195,0.0,-0.13695968451929882,0.1488097840065382,0.0,12.573360579342067,0.7391444867107441,0.0
-36.35369314963062,87.88207008869041,0.0,40.90309419034849,86.24824549844162,0.0,-141.79199790232087,-38.61501025096418,0.0,117.84572118562708,-131.24397838668594,0.0,0.7841388922832636,-24.564093809437747,0.0,0.7924795813681264,-1.530720849173199,0.0,-20.857255002705514,72.85376045567449,10.0,0.0,60.47296514731492,0.0,0.0,33.46650016261583,0.0,0.0,-59.47401714939575,0.0,0.0,-13.844369069757,0.0,0.0,-9.01793248498384,0.0,0.0,-0.18332413849879955,0.0,10.0,11.228847375856114,0.0
-41.45721128305898,-262.8150688814215,0.0,-12.485852127090858,-75.1291470395699,0.0,89.39740491095132,198.02106722461582,0.0,-61.96642549539234,93.90565861146412,0.0,-16.75256950697797,61.86400248709121,0.0,-0.7231379577227152,-2.2325222934977202,0.0,25.732064617124415,95.46445099536791,10.0,0.0,-111.49183898988132,0.0,0.0,-33.57356737890178,0.0,0.0,80.51402369340545,0.0,0.0,45.25772161684009,0.0,0.0,29.079130952727372,0.0,0.0,-1.1483054136168331,0.0,10.0,53.681913712479655,0.0
-14.568080462924632,63.743134971290615,0.0,-7.408282362620565,45.28301633348798,0.0,14.055641939218539,-181.482683849397,0.0,-6.913380367643637,44.573502203637524,0.0,-17.47309511045528,15.803418061614053,0.0,-0.4586663724351368,-0.8978935695694897,0.0,18.6697003724445,34.637920398615755,9.999999999999998,-3.059003486516437,14.776445352799167,0.0,6.8812327563992755,24.519935741917557,0.0,23.675406253146637,-70.72329133684502,0.0,-28.37137351263223,10.542911765103668,0.0,-9.828544624693718,9.179339919336051,0.0,-0.10948901812541234,-0.292245369221733,0.0,11.516413050692229,14.260863913518447,0.0
-2.223971319715475,-94.1027152259718,0.0,-7.144839025284545,55.79288055922086,0.0,13.084792680350173,46.056288899066246,0.0,-26.545439492072152,-35.770027450272224,0.0,4.933768035175174,10.855603599175254,0.0,-0.698416242115838,-0.5971518978044572,0.0,15.831664219938686,13.415595937237045,10.0,2.2902233059611268,-49.77504757007087,0.0,-12.45923315180781,25.582509519187074,0.0,5.337122590786901,36.69070464287561,0.0,6.5448705883770755,-15.929359868197134,0.0,-2.243680004119695,2.6364699211444464,0.0,-0.3758696671154798,-0.3793394414362406,0.0,16.12080271024683,13.836804787278545,0.0
-38.46400533342667,0.0,8.741211802576403,-4.74034736316937,0.0,1.2019293465619139,19.452939819898408,0.0,-26.23511670416204,10.862554112810182,0.0,4.82431725848436,10.436529581220704,0.0,1.3315477050849118,-0.005269659036728851,0.0,0.0005508702406264349,-9.969344258324522,9.999999999999998,8.941720104859542,0.0,-47.333616734972864,0.0,0.0,16.988205222831077,0.0,0.0,32.46754818695608,0.0,0.0,-34.543902017893444,0.0,0.0,10.046177329393696,0.0,0.0,0.15065410886567726,0.0,10.0,-4.559177659711266,0.0
76.24612172174812,-75.16365201920924,-9.700534291301862,-2.1165406262374833,-9.744639585336854,-4.456557440556305,-23.984885769133548,-9.185534299184985,28.907426549935565,15.26119827207008,41.61258154613882,-5.968372427829926,-1.3698813395962381,44.23728597082926,-15.552452063642864,-0.15975737214713995,0.9892433042402903,0.012150344436843655,-6.3738692335233775,-55.72841770105197,2.2434445105747107,0.0,0.7255921652247651,0.0,0.0,18.189311700938163,0.0,0.0,-19.08504439137146,0.0,0.0,18.85490230294732,0.0,0.0,2.768260085852267,0.0,0.0,-0.21651734191418223,0.0,10.0,4.5478173184106865,0.0
-34.20365566421267,0.0,16.958394148561297,-19.212723414149405,0.0,-7.091641104296399,16.598032144488077,0.0,-14.763847367084981,14.101280170282113,0.0,14.892439918921436,10.29979058299119,0.0,9.089016643771574,-0.20044076390484447,0.0,0.03243164854626121,-0.7185386252356851,10.0,-11.683802868277123,0.0,-13.243928915131047,0.0,0.0,0.7492507680775479,0.0,0.0,5.60155146449005,0.0,0.0,-2.9114434098403477,0.0,0.0,1.9902970954647385,0.0,0.0,0.05068672075062465,0.0,10.000000000000002,6.932643575671575,0.0
