qF1_1,qF2_1,qF3_1,qF1_2,qF2_2,qF3_2,qF1_3,qF2_3,qF3_3,qF1_4,qF2_4,qF3_4,qF1_5,qF2_5,qF3_5,qF1_6,qF2_6,qF3_6,qF1_7,qF2_7,qF3_7,qH1_1,qH2_1,qH3_1,qH1_2,qH2_2,qH3_2,qH1_3,qH2_3,qH3_3,qH1_4,qH2_4,qH3_4,qH1_5,qH2_5,qH3_5,qH1_6,qH2_6,qH3_6,qH1_7,qH2_7,qH3_7
-9.40926579490935,-13.554673432798532,170035.63756058042,-5.699579629570083,2.0685975947485598,135916.19972431965,-19.85264926780216,17.18047244142769,-146803.95269459445,2.931704133650076,21.398903914310402,-121937.74698686953,3.7697195820420846,-3.990647803379002,-15288.547472336271,0.05670061874824471,0.46306702303876807,0.0,7.798918029397937,-26.845213570792176,0.0,0.0,0.0,-113019.84895096744,0.0,0.0,-90299.714205814,0.0,0.0,97560.99741168415,0.0,0.0,81030.61753247373,0.0,0.0,10198.93664026137,0.0,0.0,0.0,10.0,10.0,0.0
-5.65654512413276,32.641022892192176,-798.2840931324564,-6.7702896723653945,5.114303846907043,-2092.375269027578,-23.29685972740351,-37.260077471109746,2607.816474271168,6.328830748403589,40.07224806548662,0.0,8.375409101551774,0.79484471909419,0.0,0.07256572069571515,0.0050886858285799025,0.0,3.3707399853715705,-10.04740554626591,0.0,0.0,0.0,1237.9710428487556,0.0,0.0,2434.4961846996584,0.0,0.0,-3148.239092154167,0.0,0.0,0.0,0.0,0.0,0.0,0.0,0.0,0.0,10.000000000000004,10.0,0.0
3.118828071193343,-86.99903589553689,1012.1127114239514,3.071318820349593,-1.8691609337107447,1065.2040124063406,-17.932450275172915,15.360876152479355,-1764.8447699467854,-3.48116588974991,6.761911704334136,0.0,1.0410322694942618,5.85148569014526,-124.26644081588204,0.0961354473484664,0.10243565424375074,0.0,6.554824898720793,4.551601414926559,0.0,0.0,0.0,-844.2280816328371,0.0,0.0,-1451.4340466068427,0.0,0.0,2186.102675395708,0.0,0.0,0.0,0.0,0.0,129.65889349134596,0.0,0.0,0.0,10.0,10.0,0.0
18.321510273105687,0.0,0.0,4.166826769633607,0.0,0.0,-20.751950648067734,0.0,0.0,-2.116174286720985,0.0,0.0,2.3513743862250043,0.0,0.35275793954551016,0.13761939421176725,0.0,-0.1807337791433219,1.3997744268953662,-9.999999999999998,0.0,0.0,0.0,0.0,0.0,0.0,0.0,0.0,0.0,0.0,0.0,0.0,0.0,0.0,0.0,-0.35275793954551016,0.0,0.0,0.1807337791433219,10.0,10.0,0.0
2.3328297625284518,-26.273639833102123,-116.39010989011008,1.076221901528424,16.54816877083239,-1423.4128728414423,-4.775850928357909,25.82285289177921,2430.317896389322,0.023096888691341844,-2.3962972353575793,0.0,0.7190282871053225,3.5508748035931688,0.0,0.26205214641610874,-0.08339614601237944,0.0,0.48959625019751274,-7.037536459783771,0.0,0.0,0.0,116.3901098901091,0.0,0.0,1423.4128728414419,0.0,0.0,-2430.3178963893206,0.0,0.0,0.0,0.0,0.0,0.0,0.0,0.0,0.0,9.999999999999998,10.0,0.0
-3.714238544638761,-16.657830083096474,3.020294889402346,-0.5505983244411539,6.925687083217154,18.63547730251315,-2.9169189369473103,-11.458557631227693,77.48160661641809,2.9373757123983637,13.218392704362644,-12.432784349757398,1.5187026769253924,9.620064666301037,-22.7942593923685,0.37984596757739986,-0.7098031422127119,0.11962850470507462,-3.341259861271344,25.15348230635413,-18.455283682592242,0.0,0.0,0.0,0.0,0.0,0.0,0.0,0.0,0.0,0.0,0.0,0.0,0.0,0.0,0.0,0.0,0.0,0.0,10.0,0.0,0.0
-6.429910207723846,0.0,-81.03793986171806,0.05524457142194488,0.0,-29.302566534307896,4.324740786096602,0.0,135.67685902142279,-0.8641551925853878,0.0,-12.744905817626666,0.23714608831550432,0.0,-2.111400487436373,0.40841413750368094,0.0,-0.2416470113626422,-4.317843487786052,10.0,12.437775656518799,0.0,0.0,0.0,0.0,0.0,0.0,0.0,0.0,0.0,0.0,0.0,0.0,0.0,0.0,0.0,0.0,0.0,0.0,10.0,0.0,0.0
-21.27389561613269,-26.948563495825994,0.0,-10.016678243984215,5.351648998414784,0.0,35.20314468953925,-5.079098580251048,0.0,-15.905809753590614,24.856061009705115,0.0,0.7669402009323422,10.054385003699425,0.0,0.5430704252465113,4.408111571383056e-05,0.0,-8.645999880446553,-9.321952194310711,-9.999999999999996,0.0,0.0,0.0,0.0,0.0,0.0,0.0,0.0,0.0,0.0,0.0,0.0,0.0,0.0,0.0,0.0,0.0,0.0,10.000000000000002,0.0,0.0
-62.371323199253936,-30.608056004282666,0.0,-8.103223858612282,8.33061381278021,0.0,10.91749775734352,21.176780640467783,0.0,9.543871230796015,3.1129168209624893,0.0,-0.11540785622528883,-4.051258878884191,0.0,0.18721225344492667,0.752222075710122,0.0,4.294279886530578,-35.78875885956383,-9.999999999999998,0.0,0.0,0.0,0.0,0.0,0.0,0.0,0.0,0.0,0.0,0.0,0.0,0.0,0.0,0.0,0.0,0.0,0.0,10.0,0.0,0.0
-63.99040593733053,-11.817643586601632,-30.844755569455103,-5.216890298192671,2.046432992336514,-7.837541837144099,5.389609513814643,9.009403825268821,0.5894218411252631,8.89654463041386,-8.426454915359392,23.24681727345995,3.2652771554312334,18.328415582294433,18.976108624078442,0.15431275111027765,-0.09917803439782213,0.002298621947155159,3.7029510316554166,-4.095071549010694,-9.10050438979244,0.0,0.0,0.0,0.0,0.0,0.0,0.0,0.0,0.0,0.0,0.0,0.0,0.0,0.0,0.0,0.0,0.0,0.0,10.0,0.0,0.0
-52.29776043480921,0.0,5.454785295997413,-1.2527558711817477,0.0,31.971075877891924,8.91131035872009,0.0,-17.75888687956653,10.735820074823671,0.0,-18.884859969243738,-5.316629565852046,0.0,2.5685601901422386,0.21427289414763953,0.0,-0.019035190420133897,2.364675581343614,-9.99999999999999,-7.661028685887874,0.0,0.0,0.0,0.0,0.0,0.0,0.0,0.0,0.0,0.0,0.0,0.0,0.0,0.0,0.0,0.0,0.0,0.0,10.0,0.0,0.0
-1.8267023672732292,0.0,9.133530676635424,-0.961655964120674,0.0,37.36126060336854,1.0548206266177242,0.0,-39.41839246221924,0.6646805648289553,0.0,-17.34918839240665,-19.596638832346557,0.0,8.017583213148386,0.03511653101454218,0.0,-0.13611485639765178,8.92227239190716,-10.000000000000009,1.4891356567454987,0.0,0.0,0.0,0.0,0.0,0.0,0.0,0.0,0.0,0.0,0.0,0.0,0.0,0.0,0.0,0.0,0.0,0.0,10.000000000000004,0.0,0.0
-83.75727289343594,0.0,-30.932763173568265,3.4336369836972658,0.0,25.152398873151437,8.37962684104836,0.0,-38.24834598403691,3.2471766948953493,0.0,-7.8384134232810005,7.933909150595867,0.0,37.35368924034474,0.04935123800941737,0.0,-0.11427395406666355,5.3488247893067395,-10.0,-2.375145458509831,0.0,0.0,0.0,0.0,0.0,0.0,0.0,0.0,0.0,0.0,0.0,0.0,0.0,0.0,0.0,0.0,0.0,0.0,10.0,0.0,0.0
-56.937011591709854,-4.848000592227154,-1.1085759355567406,9.367546659954812,-3.186763802448137,-14.845889077105113,3.0219466807020487,-1.3225201317291622,-32.19679585123866,5.011478034330495,27.432489393316256,5.781787090509791,2.733266080309848,1.7978219015885197,22.696392378728433,0.07990368892006544,-0.05862981984773204,0.5729497812995679,2.513781962429847,-7.905681613051912,-36.50801630571658,0.0,0.0,0.0,0.0,0.0,0.0,0.0,0.0,0.0,0.0,0.0,0.0,0.0,0.0,0.0,0.0,0.0,0.0,10.0,0.0,0.0
-12.255728987767835,-5.860618559396664,2.8774425054280846,5.817958697582599,-2.658765667183935,-3.6252954704534424,-12.263335671306848,-0.2804070199952328,-16.013232847448673,16.314171304118826,27.247440044723433,2.984477098259543,-3.0724438303723067,0.8489313391972535,27.41551250360693,0.35289537366584545,-0.023485238430419643,0.11501496242927002,-7.624899089589929,-9.291304398905075,-15.190152421413005,0.0,0.0,0.0,0.0,0.0,0.0,0.0,0.0,0.0,0.0,0.0,0.0,0.0,0.0,0.0,0.0,0.0,0.0,10.000000000000004,0.0,0.0
-19.14917982985338,25.74549823794126,-36.176925762120355,0.6342341516136115,5.7449695718645195,-30.88722205104228,0.13893576205118235,-18.30381425172558,59.953121676002084,4.630089225856692,25.396060479608668,-19.618493135392338,0.5894138211791944,-3.1925865557341666,10.137724646653307,0.4700266369557135,-0.19829057229764407,-0.12714604714587294,-6.867358809522671,-0.9782595051081715,13.99893453213948,0.0,0.0,0.0,0.0,0.0,0.0,0.0,0.0,0.0,0.0,0.0,0.0,0.0,0.0,0.0,0.0,0.0,0.0,10.0,0.0,0.0
5.651547380617436,0.0,0.0,5.288876202373631,0.0,0.0,-7.294454576388267,0.0,0.0,-1.4425047515633955,0.0,0.0,-1.2538437289293622,0.0,0.0,0.3882440818643662,0.0,0.0,-4.791632490423844,9.999999999999998,-10.00000000000001,0.0,0.0,0.0,0.0,0.0,0.0,0.0,0.0,0.0,0.0,0.0,0.0,0.0,0.0,0.0,0.0,0.0,0.0,10.0,0.0,0.0
-3.834163393566594,0.0,-14.92859691633768,-0.7569654983688137,0.0,12.456754501280415,-36.58200493872649,0.0,-28.932545198689787,49.5313717788029,0.0,30.157458598932852,2.341737692133525,0.0,10.133188966495549,0.6459487682375514,0.0,-0.07706490586131368,-27.850095061361703,10.0,-2.7760337105955015,0.0,0.0,0.0,0.0,0.0,0.0,0.0,0.0,0.0,0.0,0.0,0.0,0.0,0.0,0.0,0.0,0.0,0.0,10.0,0.0,0.0
0.0,-62.44209334563625,62.021168474582396,0.0,-8.808394442505307,-23.717305114895346,0.0,7.4162747182409525,-44.87856020159582,0.0,15.189742038229468,16.384359658697402,0.0,1.9352435016625964,-0.8890062656678315,0.0,-0.1517102616860093,-0.3586167212289171,-10.0,15.25051172983467,29.150984233868613,80.4973695310666,0.0,0.0,9.866382708464894,0.0,0.0,-28.855009270495767,0.0,0.0,-5.906072148299591,0.0,0.0,-3.1167383096299193,0.0,0.0,-0.041794846540884154,0.0,0.0,-4.196030622214682,0.0,0.0
89.3680132307575,-6.023475113698357,-33.090951821005916,21.830895337561422,-11.823183158463427,-20.341664689845807,20.04934215847524,-35.56682015732813,-15.67627215319412,-38.0287245293271,35.31898191922198,31.99834457178238,-44.173378043522256,14.30089984588622,6.485996528205935,0.1914753508475084,-0.4116242709297,-0.624273722366501,-9.531161571305113,17.062705132849658,42.08875614826108,48.34424491264932,0.0,0.0,-0.2636760948851029,0.0,0.0,-14.738540430309808,0.0,0.0,0.3791505640604953,0.0,0.0,-2.761654266527999,0.0,0.0,0.1846657630606914,0.0,0.0,-2.793707473138536,0.0,0.0
-12.154602423998929,-42.37861906061072,-51.16234884057468,-9.523655828056137,-18.297574138993884,6.059635847988995,-12.413476470280592,0.7482501625151554,13.074760561872084,1.9221754114342,24.352955993427745,-31.232899422660683,0.457333266225568,8.039960404530602,28.645629000468585,0.10256675493940735,-0.5656981508121144,0.05774042493385384,7.254259742453928,29.261709351129355,-7.288771608438735,0.0,0.0,0.0,0.0,0.0,0.0,0.0,0.0,0.0,0.0,0.0,0.0,0.0,0.0,0.0,0.0,0.0,0.0,10.0,0.0,0.0
42.87859094931899,17.999345689173605,225.4782379769604,4.980323600363694,12.842481684589634,34.88125136055357,-0.6219648820446095,-13.55854051085672,-60.524096498932465,-27.536543723478566,-17.48513334571666,58.61797543844531,7.37313623880774,13.17403427326419,-73.84192156771333,0.05868041107559881,0.026055920032692605,1.5066568197490005,-11.134303476638518,-10.259436097939092,-99.82690364314793,0.0,0.0,0.0,0.0,0.0,0.0,0.0,0.0,0.0,0.0,0.0,0.0,0.0,0.0,0.0,0.0,0.0,0.0,10.000000000000002,0.0,0.0
55.20862530777853,74.84899836861548,-68.75075721609653,14.643975608003624,11.055620612690445,-105.57374889982496,-16.151525892349092,-22.638319422834105,117.95149365405408,-11.699054949876949,-4.358750320073557,33.60693059617905,-6.0693574618181,-2.3956769560111795,-13.349707123839197,-0.06312687935958831,0.025250174873916544,2.536515074271071,-7.853066776812478,-11.101257000178801,-130.1047918523061,0.0,0.0,0.0,0.0,0.0,0.0,0.0,0.0,0.0,0.0,0.0,0.0,0.0,0.0,0.0,0.0,0.0,0.0,10.000000000000002,0.0,0.0
0.0,0.0,78.63750600362306,0.0,0.0,-605.0542583973953,0.0,0.0,-143.03014105038994,0.0,0.0,910.9186786716724,0.0,0.0,0.0,0.0,0.0,0.0,-10.0,-9.999999999999995,0.0,0.0,0.0,0.0,0.0,0.0,0.0,0.0,0.0,0.0,0.0,0.0,0.0,0.0,0.0,0.0,0.0,0.0,0.0,10.0,0.0,0.0
