qF1_1,qF2_1,qF3_1,qF1_2,qF2_2,qF3_2,qF1_3,qF2_3,qF3_3,qF1_4,qF2_4,qF3_4,qF1_5,qF2_5,qF3_5,qF1_6,qF2_6,qF3_6,qF1_7,qF2_7,qF3_7,qH1_1,qH2_1,qH3_1,qH1_2,qH2_2,qH3_2,qH1_3,qH2_3,qH3_3,qH1_4,qH2_4,qH3_4,qH1_5,qH2_5,qH3_5,qH1_6,qH2_6,qH3_6,qH1_7,qH2_7,qH3_7
-27.74456584085079,-13.554673432798532,170035.63756055816,-8.540485517293021,2.0685975947485598,135916.19972430175,9.378548431974604,17.18047244142769,-146803.9526945752,-18.998426306564426,21.398903914310402,-121937.74698685344,11.19778999245189,-3.990647803379002,-15288.54747233426,-0.06523444440099603,0.46306702303876807,0.0,8.506502177175486,-26.845213570792176,0.0,0.0,0.0,-113019.84895096805,0.0,0.0,-90299.71420581445,0.0,0.0,97560.99741168464,0.0,0.0,81030.61753247413,0.0,0.0,10198.936640261423,0.0,0.0,0.0,10.0,10.0,0.0
-15.903275739953854,32.641022892192176,-798.2840931324564,-6.614000430632269,5.114303846907043,-2092.375269027578,-19.956748356437128,-37.260077471109746,2607.816474271168,10.61034944810666,40.07224806548662,0.0,20.309200341207884,0.79484471909419,0.0,-0.08015208293037283,0.0050886858285799025,0.0,0.2736191686997048,-10.04740554626591,0.0,0.0,0.0,1237.971042848754,0.0,0.0,2434.4961846996553,0.0,0.0,-3148.2390921541623,0.0,0.0,0.0,0.0,0.0,0.0,0.0,0.0,0.0,10.0,10.0,0.0
0.0,-86.99903589553689,1012.1127114239514,0.0,-1.8691609337107447,1065.2040124063406,0.0,15.360876152479355,-1764.8447699467854,0.0,6.761911704334136,0.0,0.0,5.85148569014526,-124.26644081588204,0.0,0.10243565424375074,0.0,10.0,4.551601414926559,0.0,0.0,0.0,-844.2280816328371,0.0,0.0,-1451.4340466068427,0.0,0.0,2186.102675395708,0.0,0.0,0.0,0.0,0.0,129.65889349134596,0.0,0.0,0.0,10.0,10.0,0.0
0.0,0.0,0.0,0.0,0.0,0.0,0.0,0.0,0.0,0.0,0.0,0.0,0.0,0.0,0.35275793954551016,0.0,0.0,-0.1807337791433219,9.999999999999998,-10.000000000000016,0.0,0.0,0.0,0.0,0.0,0.0,0.0,0.0,0.0,0.0,0.0,0.0,0.0,0.0,0.0,-0.35275793954551016,0.0,0.0,0.1807337791433219,9.999999999999998,10.0,0.0
0.0,-26.273639833102123,-116.39010989011008,0.0,16.54816877083239,-1423.4128728414423,0.0,25.82285289177921,2430.317896389322,0.0,-2.3962972353575793,0.0,0.0,3.5508748035931688,0.0,0.0,-0.08339614601237944,0.0,10.0,-7.037536459783771,0.0,0.0,0.0,116.39010989011008,0.0,0.0,1423.4128728414423,0.0,0.0,-2430.317896389322,0.0,0.0,0.0,0.0,0.0,0.0,0.0,0.0,0.0,10.0,10.0,0.0
0.0,-16.657830083096474,3.020294889402346,0.0,6.925687083217154,18.63547730251315,0.0,-11.458557631227693,77.48160661641809,0.0,13.218392704362644,-12.432784349757398,0.0,9.620064666301037,-22.7942593923685,0.0,-0.7098031422127119,0.11962850470507462,10.0,25.15348230635413,-18.455283682592242,0.0,0.0,0.0,0.0,0.0,0.0,0.0,0.0,0.0,0.0,0.0,0.0,0.0,0.0,0.0,0.0,0.0,0.0,10.0,9.999999999999998,9.99999999999999
0.0,0.0,-81.03793986171806,0.0,0.0,-29.302566534307896,0.0,0.0,135.67685902142279,0.0,0.0,-12.744905817626666,0.0,0.0,-2.111400487436373,0.0,0.0,-0.2416470113626422,10.0,10.0,12.437775656518799,0.0,0.0,0.0,0.0,0.0,0.0,0.0,0.0,0.0,0.0,0.0,0.0,0.0,0.0,0.0,0.0,0.0,0.0,10.0,10.000000000000002,10.0
-21.27389561613276,-26.948563495825994,0.0,-10.016678243984195,5.351648998414784,0.0,35.2031446895392,-5.079098580251048,0.0,-15.905809753590585,24.856061009705115,0.0,0.7669402009323614,10.054385003699425,0.0,0.5430704252465112,4.408111571383056e-05,0.0,-8.64599988044655,-9.321952194310711,-10.0,0.0,0.0,0.0,0.0,0.0,0.0,0.0,0.0,0.0,0.0,0.0,0.0,0.0,0.0,0.0,0.0,0.0,0.0,10.0,0.0,0.0
-52.177925401053486,-30.608056004282663,0.0,-12.489844169664913,8.330613812780207,0.0,13.166316326029955,21.17678064046778,0.0,4.631275074412366,3.112916820962491,0.0,-0.2581976035326069,-4.051258878884192,0.0,0.11310297167508455,0.7522220757101221,0.0,7.6320371152174875,-35.788758859563835,-9.999999999999998,0.0,0.0,0.0,0.0,0.0,0.0,0.0,0.0,0.0,0.0,0.0,0.0,0.0,0.0,0.0,0.0,0.0,0.0,10.0,0.0,0.0
-66.62111018317499,-11.817643586601632,-30.844755569455103,-5.343985542451635,2.046432992336514,-7.837541837144099,6.249658929858161,9.009403825268821,0.5894218411252631,9.152169202381739,-8.426454915359392,23.24681727345995,4.189604013214881,18.328415582294433,18.976108624078442,0.15898205349388925,-0.09917803439782213,0.002298621947155159,3.25144883949924,-4.095071549010694,-9.10050438979244,0.0,0.0,0.0,0.0,0.0,0.0,0.0,0.0,0.0,0.0,0.0,0.0,0.0,0.0,0.0,0.0,0.0,0.0,10.0,10.0,10.000000000000028
-43.54629975727124,0.0,5.454785295997413,-1.3541450835635263,0.0,31.971075877891924,8.529518466819463,0.0,-17.75888687956653,14.935424918911195,0.0,-18.884859969243738,-8.326437345572447,0.0,2.5685601901422386,0.29393915205136795,0.0,-0.019035190420133897,-0.5079400727599941,-9.99999999999999,-7.661028685887874,0.0,0.0,0.0,0.0,0.0,0.0,0.0,0.0,0.0,0.0,0.0,0.0,0.0,0.0,0.0,0.0,0.0,0.0,10.0,9.999999999999998,10.0
-13.882425598922648,0.0,9.133530676635424,-2.7447121848002207,0.0,37.36126060336854,6.148498862712913,0.0,-39.41839246221924,5.038767554023551,0.0,-17.34918839240665,-17.640346861063996,0.0,8.017583213148386,-0.040269367556655215,0.0,-0.13611485639765178,10.795570293363147,-10.000000000000014,1.4891356567454987,0.0,0.0,0.0,0.0,0.0,0.0,0.0,0.0,0.0,0.0,0.0,0.0,0.0,0.0,0.0,0.0,0.0,0.0,10.0,10.0,10.0
-78.26047683794451,0.0,-30.932763173568265,12.194928388983671,0.0,25.152398873151437,6.386376513472608,0.0,-38.24834598403691,-5.137190047683494,0.0,-7.8384134232810005,8.829581195051793,0.0,37.35368924034474,-0.016126581120632526,0.0,-0.11427395406666355,6.1199224987678065,-10.0,-2.375145458509831,0.0,0.0,0.0,0.0,0.0,0.0,0.0,0.0,0.0,0.0,0.0,0.0,0.0,0.0,0.0,0.0,0.0,0.0,9.999999999999948,10.0,10.0
-44.642090216863615,-4.848000592227154,-1.1085759355567406,11.72543410988428,-3.186763802448137,-14.845889077105113,-4.047419379321161,-1.3225201317291622,-32.19679585123866,3.407702008696165,27.432489393316256,5.781787090509791,3.1268899365588725,1.7978219015885197,22.696392378728433,0.06210843946237584,-0.05862981984773204,0.5729497812995679,3.2217794826459603,-7.905681613051912,-36.50801630571658,0.0,0.0,0.0,0.0,0.0,0.0,0.0,0.0,0.0,0.0,0.0,0.0,0.0,0.0,0.0,0.0,0.0,0.0,10.0,10.0,10.000000000000002
-10.070773820553418,-5.860618559396664,2.8774425054280846,7.285631448787083,-2.658765667183935,-3.6252954704534424,-9.062775348732599,-0.2804070199952328,-16.013232847448673,5.6882677183911525,27.247440044723433,2.984477098259543,-1.0830889517173674,0.8489313391972535,27.41551250360693,0.33027390371997933,-0.023485238430419643,0.11501496242927002,-4.046834544785877,-9.291304398905075,-15.190152421413005,0.0,0.0,0.0,0.0,0.0,0.0,0.0,0.0,0.0,0.0,0.0,0.0,0.0,0.0,0.0,0.0,0.0,0.0,10.0,10.0,10.0
-12.769314356331954,25.74549823794126,-36.176925762120355,1.307166371170467,5.7449695718645195,-30.88722205104228,-1.751999776198689,-18.30381425172558,59.953121676002084,4.285285955263408,25.396060479608668,-19.618493135392338,-0.2073193161173741,-3.1925865557341666,10.137724646653307,0.46909396610508886,-0.19829057229764407,-0.12714604714587294,-6.778362227626679,-0.9782595051081715,13.99893453213948,0.0,0.0,0.0,0.0,0.0,0.0,0.0,0.0,0.0,0.0,0.0,0.0,0.0,0.0,0.0,0.0,0.0,0.0,10.0,10.0,9.999999999999998
0.0,0.0,0.0,0.0,0.0,0.0,0.0,0.0,0.0,0.0,0.0,0.0,0.0,0.0,0.0,0.0,0.0,0.0,10.0,10.000000000000005,-10.000000000000009,0.0,0.0,0.0,0.0,0.0,0.0,0.0,0.0,0.0,0.0,0.0,0.0,0.0,0.0,0.0,0.0,0.0,0.0,10.0,10.0,10.000000000000039
-1.3146917002988971,0.0,-14.92859691633768,-2.235393009187601,0.0,12.456754501280415,-40.83763523396266,0.0,-28.932545198689787,43.25838474900105,0.0,30.157458598932852,1.1195059261515128,0.0,10.133188966495549,0.5626351139899509,0.0,-0.07706490586131368,-18.343837957783325,10.0,-2.7760337105955015,0.0,0.0,0.0,0.0,0.0,0.0,0.0,0.0,0.0,0.0,0.0,0.0,0.0,0.0,0.0,0.0,0.0,0.0,10.0,10.0,10.0
0.0,-62.44209334563625,62.021168474582396,0.0,-8.808394442505307,-23.717305114895346,0.0,7.4162747182409525,-44.87856020159582,0.0,15.189742038229468,16.384359658697402,0.0,1.9352435016625964,-0.8890062656678315,0.0,-0.1517102616860093,-0.3586167212289171,-10.0,15.25051172983467,29.150984233868613,80.4973695310666,0.0,0.0,9.866382708464894,0.0,0.0,-28.855009270495767,0.0,0.0,-5.906072148299591,0.0,0.0,-3.1167383096299193,0.0,0.0,-0.041794846540884154,0.0,0.0,-4.196030622214682,0.0,0.0
89.36801323075743,-6.023475113698357,-33.090951821005916,21.830895337561405,-11.823183158463427,-20.341664689845807,20.04934215847524,-35.56682015732813,-15.67627215319412,-38.02872452932708,35.31898191922198,31.99834457178238,-44.17337804352226,14.30089984588622,6.485996528205935,0.19147535084750844,-0.4116242709297,-0.624273722366501,-9.531161571305084,17.062705132849658,42.08875614826108,48.34424491264932,0.0,0.0,-0.2636760948851029,0.0,0.0,-14.738540430309808,0.0,0.0,0.3791505640604953,0.0,0.0,-2.761654266527999,0.0,0.0,0.1846657630606914,0.0,0.0,-2.793707473138536,0.0,0.0
-0.8418081721267351,-42.37861906061072,-51.16234884057468,-9.8300609456454,-18.297574138993884,6.0596358479889805,7.301821202197555,0.7482501625151554,13.074760561872084,-16.49198791109213,24.352955993427745,-31.23289942266067,-5.014131880738206,8.039960404530602,28.64562900046859,0.01733234836977014,-0.5656981508121144,0.0577404249338536,10.261209039948401,29.261709351129355,-7.28877160843872,0.0,0.0,0.0,0.0,0.0,0.0,0.0,0.0,0.0,0.0,0.0,0.0,0.0,0.0,0.0,0.0,0.0,0.0,10.0,10.0,10.0
59.2932924049474,17.999345689173605,225.4782379769604,3.590733390677226,12.842481684589634,34.88125136055357,-10.962254469568421,-13.55854051085672,-60.524096498932465,-25.90188679558086,-17.48513334571666,58.61797543844531,7.713189835678904,13.17403427326419,-73.84192156771333,-0.12395147858006958,0.026055920032692605,1.5066568197490005,-4.802446203012067,-10.259436097939092,-99.82690364314793,0.0,0.0,0.0,0.0,0.0,0.0,0.0,0.0,0.0,0.0,0.0,0.0,0.0,0.0,0.0,0.0,0.0,0.0,10.0,9.999999999999998,10.0
63.34408904887349,74.84899836861548,-68.75075721609653,15.174069091155802,11.055620612690445,-105.57374889982496,-13.393618187792415,-22.638319422834105,117.95149365405408,-19.81555365642072,-4.358750320073557,33.60693059617905,-3.5271820665656826,-2.3956769560111795,-13.349707123839197,-0.034199444450788916,0.025250174873916544,2.536515074271071,-9.088897927749539,-11.101257000178801,-130.1047918523061,0.0,0.0,0.0,0.0,0.0,0.0,0.0,0.0,0.0,0.0,0.0,0.0,0.0,0.0,0.0,0.0,0.0,0.0,10.000000000000002,10.0,10.0
0.0,8.045477126309247,78.63750600362306,0.0,-5.473531902759392,-605.0542583973953,0.0,13.537985749677885,-143.03014105038994,0.0,16.097797025135986,910.9186786716724,0.0,-1.4281065674895363,0.0,0.0,0.19199280443167013,0.0,-10.0,-17.48131013007958,0.0,0.0,0.0,188.53637255227977,0.0,0.0,407.98928006858915,0.0,0.0,-125.41685997288337,0.0,0.0,-469.7520080374201,0.0,0.0,0.0,0.0,0.0,0.0,9.999999999999996,10.0,0.0
